<?xml version="1.0"?>
<opencv_storage>
<cascade>
  <stageType>BOOST</stageType>
  <featureType>HAAR</featureType>
  <height>24</height>
  <width>36</width>
  <stageParams>
    <boostType>GAB</boostType>
    <minHitRate>9.9500000476837158e-01</minHitRate>
    <maxFalseAlarm>5.0000000000000000e-01</maxFalseAlarm>
    <weightTrimRate>9.4999998807907104e-01</weightTrimRate>
    <maxDepth>1</maxDepth>
    <maxWeakCount>100</maxWeakCount></stageParams>
  <featureParams>
    <maxCatCount>0</maxCatCount>
    <featSize>1</featSize>
    <mode>BASIC</mode></featureParams>
  <stageNum>13</stageNum>
  <stages>
    <!-- stage 0 -->
    <_>
      <maxWeakCount>3</maxWeakCount>
      <stageThreshold>-9.1561961174011230e-01</stageThreshold>
      <weakClassifiers>
        <_>
          <internalNodes>
            0 -1 27 -1.1663848161697388e-01</internalNodes>
          <leafValues>
            8.6813187599182129e-01 -9.7938144207000732e-01</leafValues></_>
        <_>
          <internalNodes>
            0 -1 1 -4.4098600745201111e-02</internalNodes>
          <leafValues>
            8.9408338069915771e-01 -8.2109999656677246e-01</leafValues></_>
        <_>
          <internalNodes>
            0 -1 29 4.6748921275138855e-02</internalNodes>
          <leafValues>
            -7.8785032033920288e-01 8.8486176729202271e-01</leafValues></_></weakClassifiers></_>
    <!-- stage 1 -->
    <_>
      <maxWeakCount>2</maxWeakCount>
      <stageThreshold>-3.1169731169939041e-02</stageThreshold>
      <weakClassifiers>
        <_>
          <internalNodes>
            0 -1 22 -3.8058973848819733e-02</internalNodes>
          <leafValues>
            8.1395345926284790e-01 -8.4313726425170898e-01</leafValues></_>
        <_>
          <internalNodes>
            0 -1 9 -8.1416293978691101e-02</internalNodes>
          <leafValues>
            8.1196755170822144e-01 -7.5426137447357178e-01</leafValues></_></weakClassifiers></_>
    <!-- stage 2 -->
    <_>
      <maxWeakCount>4</maxWeakCount>
      <stageThreshold>-6.3058882951736450e-01</stageThreshold>
      <weakClassifiers>
        <_>
          <internalNodes>
            0 -1 25 -1.8003457784652710e-01</internalNodes>
          <leafValues>
            8.2222223281860352e-01 -9.1836732625961304e-01</leafValues></_>
        <_>
          <internalNodes>
            0 -1 19 -9.4072133302688599e-02</internalNodes>
          <leafValues>
            9.1321885585784912e-01 -6.6592603921890259e-01</leafValues></_>
        <_>
          <internalNodes>
            0 -1 8 -4.6825654862914234e-05</internalNodes>
          <leafValues>
            -1. 5.3066581487655640e-01</leafValues></_>
        <_>
          <internalNodes>
            0 -1 11 -6.4726158976554871e-02</internalNodes>
          <leafValues>
            4.2303875088691711e-01 -1.</leafValues></_></weakClassifiers></_>
    <!-- stage 3 -->
    <_>
      <maxWeakCount>2</maxWeakCount>
      <stageThreshold>-2.9930660128593445e-01</stageThreshold>
      <weakClassifiers>
        <_>
          <internalNodes>
            0 -1 8 2.4718482745811343e-04</internalNodes>
          <leafValues>
            5.0442475080490112e-01 -9.7333335876464844e-01</leafValues></_>
        <_>
          <internalNodes>
            0 -1 24 -1.9323283433914185e-01</internalNodes>
          <leafValues>
            6.7402672767639160e-01 -7.5729125738143921e-01</leafValues></_></weakClassifiers></_>
    <!-- stage 4 -->
    <_>
      <maxWeakCount>3</maxWeakCount>
      <stageThreshold>-1.6145353019237518e-01</stageThreshold>
      <weakClassifiers>
        <_>
          <internalNodes>
            0 -1 8 1.0479995580681134e-05</internalNodes>
          <leafValues>
            -8.9333331584930420e-01 4.5132744312286377e-01</leafValues></_>
        <_>
          <internalNodes>
            0 -1 7 3.3601472387090325e-04</internalNodes>
          <leafValues>
            3.6668130755424500e-01 -1.</leafValues></_>
        <_>
          <internalNodes>
            0 -1 12 1.6227223386522382e-04</internalNodes>
          <leafValues>
            3.6519849300384521e-01 -9.3110549449920654e-01</leafValues></_></weakClassifiers></_>
    <!-- stage 5 -->
    <_>
      <maxWeakCount>2</maxWeakCount>
      <stageThreshold>-2.5608187913894653e-01</stageThreshold>
      <weakClassifiers>
        <_>
          <internalNodes>
            0 -1 7 1.0653917343006469e-05</internalNodes>
          <leafValues>
            -9.3877553939819336e-01 8.4444445371627808e-01</leafValues></_>
        <_>
          <internalNodes>
            0 -1 5 2.1307834686012939e-05</internalNodes>
          <leafValues>
            -1. 6.8269366025924683e-01</leafValues></_></weakClassifiers></_>
    <!-- stage 6 -->
    <_>
      <maxWeakCount>2</maxWeakCount>
      <stageThreshold>-1.2656718492507935e-01</stageThreshold>
      <weakClassifiers>
        <_>
          <internalNodes>
            0 -1 20 -1.2198902666568756e-01</internalNodes>
          <leafValues>
            8.2278478145599365e-01 -7.4311923980712891e-01</leafValues></_>
        <_>
          <internalNodes>
            0 -1 4 2.8828467475250363e-04</internalNodes>
          <leafValues>
            6.1655205488204956e-01 -9.2801815271377563e-01</leafValues></_></weakClassifiers></_>
    <!-- stage 7 -->
    <_>
      <maxWeakCount>3</maxWeakCount>
      <stageThreshold>-6.2333881855010986e-01</stageThreshold>
      <weakClassifiers>
        <_>
          <internalNodes>
            0 -1 21 -1.5468665957450867e-01</internalNodes>
          <leafValues>
            7.0666664838790894e-01 -6.1061948537826538e-01</leafValues></_>
        <_>
          <internalNodes>
            0 -1 18 -3.2011672854423523e-02</internalNodes>
          <leafValues>
            8.4133231639862061e-01 -5.1322376728057861e-01</leafValues></_>
        <_>
          <internalNodes>
            0 -1 32 1.1646204802673310e-04</internalNodes>
          <leafValues>
            5.0050437450408936e-01 -1.</leafValues></_></weakClassifiers></_>
    <!-- stage 8 -->
    <_>
      <maxWeakCount>4</maxWeakCount>
      <stageThreshold>-6.0342097282409668e-01</stageThreshold>
      <weakClassifiers>
        <_>
          <internalNodes>
            0 -1 26 1.6638863831758499e-02</internalNodes>
          <leafValues>
            -8.9999997615814209e-01 5.1851850748062134e-01</leafValues></_>
        <_>
          <internalNodes>
            0 -1 14 -2.2199182421900332e-04</internalNodes>
          <leafValues>
            5.0894856452941895e-01 -9.3824142217636108e-01</leafValues></_>
        <_>
          <internalNodes>
            0 -1 10 -4.6767432242631912e-02</internalNodes>
          <leafValues>
            7.9201275110244751e-01 -6.8871134519577026e-01</leafValues></_>
        <_>
          <internalNodes>
            0 -1 31 1.4695756544824690e-04</internalNodes>
          <leafValues>
            5.7090485095977783e-01 -9.4217669963836670e-01</leafValues></_></weakClassifiers></_>
    <!-- stage 9 -->
    <_>
      <maxWeakCount>3</maxWeakCount>
      <stageThreshold>2.4721381068229675e-01</stageThreshold>
      <weakClassifiers>
        <_>
          <internalNodes>
            0 -1 15 9.2514412244781852e-04</internalNodes>
          <leafValues>
            -8.4415584802627563e-01 4.4144144654273987e-01</leafValues></_>
        <_>
          <internalNodes>
            0 -1 2 2.4870209017535672e-05</internalNodes>
          <leafValues>
            -9.5021152496337891e-01 3.8686931133270264e-01</leafValues></_>
        <_>
          <internalNodes>
            0 -1 28 -1.2766808271408081e-02</internalNodes>
          <leafValues>
            8.8688462972640991e-01 -5.8109694719314575e-01</leafValues></_></weakClassifiers></_>
    <!-- stage 10 -->
    <_>
      <maxWeakCount>2</maxWeakCount>
      <stageThreshold>-8.2061837019864470e-05</stageThreshold>
      <weakClassifiers>
        <_>
          <internalNodes>
            0 -1 16 7.8428816050291061e-03</internalNodes>
          <leafValues>
            -4.8529410362243652e-01 9.6153843402862549e-01</leafValues></_>
        <_>
          <internalNodes>
            0 -1 6 -2.9650142096215859e-05</internalNodes>
          <leafValues>
            -1. 4.8521205782890320e-01</leafValues></_></weakClassifiers></_>
    <!-- stage 11 -->
    <_>
      <maxWeakCount>3</maxWeakCount>
      <stageThreshold>-4.7545567154884338e-01</stageThreshold>
      <weakClassifiers>
        <_>
          <internalNodes>
            0 -1 23 -1.5478551387786865e-02</internalNodes>
          <leafValues>
            6.9767439365386963e-01 -7.4509805440902710e-01</leafValues></_>
        <_>
          <internalNodes>
            0 -1 30 8.6641982197761536e-03</internalNodes>
          <leafValues>
            -6.1782652139663696e-01 7.7298116683959961e-01</leafValues></_>
        <_>
          <internalNodes>
            0 -1 17 -8.2439191639423370e-02</internalNodes>
          <leafValues>
            8.8746887445449829e-01 -4.8759624361991882e-01</leafValues></_></weakClassifiers></_>
    <!-- stage 12 -->
    <_>
      <maxWeakCount>3</maxWeakCount>
      <stageThreshold>-7.0340901613235474e-01</stageThreshold>
      <weakClassifiers>
        <_>
          <internalNodes>
            0 -1 3 -2.4857986718416214e-02</internalNodes>
          <leafValues>
            6.7088609933853149e-01 -6.3302749395370483e-01</leafValues></_>
        <_>
          <internalNodes>
            0 -1 0 -3.7914402782917023e-02</internalNodes>
          <leafValues>
            8.2094681262969971e-01 -5.8933776617050171e-01</leafValues></_>
        <_>
          <internalNodes>
            0 -1 13 -2.0120201952522621e-05</internalNodes>
          <leafValues>
            6.2358438968658447e-01 -7.8495734930038452e-01</leafValues></_></weakClassifiers></_></stages>
  <features>
    <_>
      <rects>
        <_>
          0 0 12 12 -1.</_>
        <_>
          0 0 6 6 2.</_>
        <_>
          6 6 6 6 2.</_></rects>
      <tilted>0</tilted></_>
    <_>
      <rects>
        <_>
          0 0 24 10 -1.</_>
        <_>
          0 0 12 5 2.</_>
        <_>
          12 5 12 5 2.</_></rects>
      <tilted>0</tilted></_>
    <_>
      <rects>
        <_>
          0 8 3 7 -1.</_>
        <_>
          1 8 1 7 3.</_></rects>
      <tilted>0</tilted></_>
    <_>
      <rects>
        <_>
          0 10 31 9 -1.</_>
        <_>
          0 13 31 3 3.</_></rects>
      <tilted>0</tilted></_>
    <_>
      <rects>
        <_>
          0 15 3 4 -1.</_>
        <_>
          1 15 1 4 3.</_></rects>
      <tilted>0</tilted></_>
    <_>
      <rects>
        <_>
          0 15 3 9 -1.</_>
        <_>
          1 15 1 9 3.</_></rects>
      <tilted>0</tilted></_>
    <_>
      <rects>
        <_>
          0 18 3 2 -1.</_>
        <_>
          1 18 1 2 3.</_></rects>
      <tilted>0</tilted></_>
    <_>
      <rects>
        <_>
          0 18 3 6 -1.</_>
        <_>
          1 18 1 6 3.</_></rects>
      <tilted>0</tilted></_>
    <_>
      <rects>
        <_>
          0 19 3 4 -1.</_>
        <_>
          1 19 1 4 3.</_></rects>
      <tilted>0</tilted></_>
    <_>
      <rects>
        <_>
          1 0 22 20 -1.</_>
        <_>
          1 0 11 10 2.</_>
        <_>
          12 10 11 10 2.</_></rects>
      <tilted>0</tilted></_>
    <_>
      <rects>
        <_>
          1 1 20 8 -1.</_>
        <_>
          1 1 10 4 2.</_>
        <_>
          11 5 10 4 2.</_></rects>
      <tilted>0</tilted></_>
    <_>
      <rects>
        <_>
          1 13 22 11 -1.</_>
        <_>
          12 13 11 11 2.</_></rects>
      <tilted>0</tilted></_>
    <_>
      <rects>
        <_>
          1 14 6 2 -1.</_>
        <_>
          4 14 3 2 2.</_></rects>
      <tilted>0</tilted></_>
    <_>
      <rects>
        <_>
          2 13 2 2 -1.</_>
        <_>
          2 14 2 1 2.</_></rects>
      <tilted>0</tilted></_>
    <_>
      <rects>
        <_>
          2 18 2 6 -1.</_>
        <_>
          2 21 2 3 2.</_></rects>
      <tilted>0</tilted></_>
    <_>
      <rects>
        <_>
          2 19 18 5 -1.</_>
        <_>
          8 19 6 5 3.</_></rects>
      <tilted>0</tilted></_>
    <_>
      <rects>
        <_>
          3 0 3 6 -1.</_>
        <_>
          3 3 3 3 2.</_></rects>
      <tilted>0</tilted></_>
    <_>
      <rects>
        <_>
          3 0 14 14 -1.</_>
        <_>
          3 0 7 7 2.</_>
        <_>
          10 7 7 7 2.</_></rects>
      <tilted>0</tilted></_>
    <_>
      <rects>
        <_>
          3 9 24 9 -1.</_>
        <_>
          3 12 24 3 3.</_></rects>
      <tilted>0</tilted></_>
    <_>
      <rects>
        <_>
          4 10 18 7 -1.</_>
        <_>
          13 10 9 7 2.</_></rects>
      <tilted>0</tilted></_>
    <_>
      <rects>
        <_>
          7 1 25 10 -1.</_>
        <_>
          7 6 25 5 2.</_></rects>
      <tilted>0</tilted></_>
    <_>
      <rects>
        <_>
          8 6 16 18 -1.</_>
        <_>
          16 6 8 18 2.</_></rects>
      <tilted>0</tilted></_>
    <_>
      <rects>
        <_>
          8 7 27 4 -1.</_>
        <_>
          17 7 9 4 3.</_></rects>
      <tilted>0</tilted></_>
    <_>
      <rects>
        <_>
          10 6 12 4 -1.</_>
        <_>
          16 6 6 4 2.</_></rects>
      <tilted>0</tilted></_>
    <_>
      <rects>
        <_>
          11 0 22 14 -1.</_>
        <_>
          11 7 22 7 2.</_></rects>
      <tilted>0</tilted></_>
    <_>
      <rects>
        <_>
          14 0 15 24 -1.</_>
        <_>
          14 8 15 8 3.</_></rects>
      <tilted>0</tilted></_>
    <_>
      <rects>
        <_>
          14 12 22 10 -1.</_>
        <_>
          14 17 22 5 2.</_></rects>
      <tilted>0</tilted></_>
    <_>
      <rects>
        <_>
          16 1 15 21 -1.</_>
        <_>
          16 8 15 7 3.</_></rects>
      <tilted>0</tilted></_>
    <_>
      <rects>
        <_>
          16 9 4 9 -1.</_>
        <_>
          16 12 4 3 3.</_></rects>
      <tilted>0</tilted></_>
    <_>
      <rects>
        <_>
          22 0 14 18 -1.</_>
        <_>
          22 0 7 9 2.</_>
        <_>
          29 9 7 9 2.</_></rects>
      <tilted>0</tilted></_>
    <_>
      <rects>
        <_>
          25 12 8 5 -1.</_>
        <_>
          29 12 4 5 2.</_></rects>
      <tilted>0</tilted></_>
    <_>
      <rects>
        <_>
          30 23 6 1 -1.</_>
        <_>
          32 23 2 1 3.</_></rects>
      <tilted>0</tilted></_>
    <_>
      <rects>
        <_>
          32 22 4 2 -1.</_>
        <_>
          32 22 2 1 2.</_>
        <_>
          34 23 2 1 2.</_></rects>
      <tilted>0</tilted></_></features></cascade>
</opencv_storage>
